// Auto-generated by tools/export_weights.py. Do not edit by hand.
// Source: models/pinn_mu.pth
#pragma once

namespace vd::pinn_weights {

constexpr int kHidden = 32;

constexpr double W1[32] = {
    -4.771804810e-01,  1.203989506e+00, -2.296000719e+00, -2.171331167e+00, -2.215536594e+00,  6.830352545e-01,  1.349089503e+00,  2.242666006e+00,
    -1.483941197e+00,  7.804098725e-01, -1.873751044e+00, -1.002486944e+00, -2.906290531e+00, -1.568506598e+00, -2.086816549e+00,  1.143782377e+00,
     1.242286444e+00,  1.390166283e+00, -2.362026691e+00, -4.371983409e-01,  1.647616625e+00,  2.045199394e+00,  3.983435631e-01,  2.316069603e+00,
    -1.329046845e+00,  5.495877862e-01,  1.653546333e+00, -2.706069708e+00, -1.828406096e+00,  2.542824447e-01, -2.558312893e+00,  2.342345715e+00,
};

constexpr double b1[32] = {
    -6.545776725e-01, -4.163832068e-01, -1.709620208e-01, -4.521683455e-01, -1.428097337e-01,  9.857345819e-01,  5.595670938e-01,  5.715701357e-02,
     1.722757220e-01, -5.340641737e-01,  1.060545668e-01, -9.794258475e-01, -5.989471450e-02, -3.062157333e-01,  1.944388747e-01,  5.532830358e-01,
    -3.611100018e-01, -7.983972877e-02,  1.128137261e-01,  1.006700873e+00,  3.169668913e-01, -2.572454885e-02,  7.139920592e-01, -5.211986601e-02,
     1.683453023e-01, -9.374043941e-01, -5.083134174e-01,  2.753342688e-02,  1.054159701e-01,  4.639126360e-01, -8.504956216e-02, -3.543963283e-02,
};

constexpr double W2[1024] = {
     2.505196631e-01, -3.654842079e-01,  5.428517461e-01,  3.176265657e-01,  5.172206163e-01,  5.273706466e-02, -3.849153817e-01, -7.616256475e-01,
     1.644738078e+00, -9.834843874e-02,  1.351306081e+00,  2.817544639e-01,  6.785556078e-01,  3.835158646e-01,  3.932416439e-01, -3.786391616e-01,
    -6.421279907e-01, -1.121799111e+00,  8.045005798e-01, -1.629075706e-01, -4.344836473e-01, -1.105201840e+00, -1.162509769e-01, -8.250308037e-01,
     9.750904441e-01, -1.412624717e-01, -2.950932682e-01,  8.611512780e-01,  9.050314426e-01,  1.458522864e-03,  3.802030683e-01, -1.034803152e+00,
     1.352153625e-02, -7.392714173e-02, -1.662968546e-01, -1.555610746e-01,  1.248932332e-01,  1.904598922e-01,  1.883356366e-03, -3.039975278e-02,
    -2.309516259e-02, -9.231761098e-02, -8.024659753e-02, -2.096596062e-01, -3.255432844e-02, -2.467620652e-03, -1.341366302e-02,  1.792464703e-01,
    -1.992160529e-01,  9.519420564e-04,  1.519335657e-01, -6.517438591e-02,  1.371290721e-02, -4.200422391e-02,  1.139194593e-01,  1.204337832e-02,
     1.573182493e-01, -6.738971919e-02, -1.911557466e-01,  7.714935392e-02, -1.091533825e-01, -3.106920049e-03, -8.815237880e-02, -1.015509963e-01,
     2.010089904e-02, -2.619615197e-01,  1.746620685e-01,  1.545870006e-01,  3.525334969e-02, -8.165204525e-02,  2.953806333e-02, -3.008911908e-01,
     8.684935570e-01, -8.423680812e-02,  5.191243887e-01,  1.848135591e-01,  4.174355865e-01,  3.410524428e-01,  2.860974967e-01, -1.277091950e-01,
    -3.301207721e-01, -8.047140241e-01,  3.645245433e-01, -2.130488120e-02, -2.692917287e-01, -6.527938247e-01, -2.174308300e-01, -4.314221442e-01,
     3.081299067e-01,  1.119533852e-01, -3.480775282e-02,  1.390569657e-01,  4.291901886e-01, -1.735477746e-01,  1.627223045e-01, -4.725267589e-01,
     3.362302110e-02,  1.710525304e-01, -2.494921535e-01, -1.524131447e-01, -8.524004370e-02, -7.054997981e-02, -1.293489188e-01,  2.173554152e-01,
    -8.558948636e-01,  1.439294815e-01, -2.032154948e-01,  4.878386389e-04,  2.447828464e-02, -3.913169727e-03, -3.206836581e-01,  6.977383792e-02,
     1.944271177e-01,  4.219676256e-01, -3.588455543e-02, -2.484043539e-01,  4.942017794e-02,  2.852918804e-01,  3.618238866e-02,  2.247616500e-01,
    -2.822166383e-01,  1.729783714e-01,  1.494349092e-01, -2.285121530e-01, -3.634016216e-01, -1.121852826e-02,  4.418969899e-02,  3.687468767e-01,
    -1.848497391e-01, -6.502572447e-02, -1.528999656e-01, -1.418448985e-01, -1.441421360e-01,  1.164972112e-01, -3.515281528e-02,  1.660167426e-02,
    -2.800327726e-02,  5.179722980e-02, -1.538521498e-01, -1.792259514e-01, -1.280286908e-01,  9.524402767e-02, -4.080294445e-02,  2.118874639e-01,
     9.395522065e-03, -6.529328227e-02, -1.372245140e-03,  2.915574610e-02,  7.562062889e-02, -5.734516680e-02,  6.937698275e-02,  2.334593050e-02,
    -1.134376824e-01, -1.512237787e-01,  7.574568689e-02, -1.593838483e-01,  7.537944708e-03,  2.584385872e-01,  1.980903745e-02,  8.196978830e-03,
    -2.815743387e-01, -1.959766261e-02, -2.110550255e-01, -1.566920131e-01, -1.579752415e-01,  9.421607852e-02,  1.227765009e-01,  2.298457623e-01,
    -1.030948907e-01,  6.238374859e-02, -8.901850088e-04, -2.328871489e-01,  3.405814059e-03, -2.202295065e-01, -4.062074050e-02,  1.838772148e-01,
     2.449188614e-04,  1.916282922e-01, -1.055993289e-01,  1.249209717e-01,  2.177852988e-01, -9.144461900e-02,  2.661556602e-01, -8.656889200e-02,
    -1.901216572e-03, -1.385454237e-01, -1.756282598e-01, -5.002323538e-02,  1.072139665e-01,  9.858759493e-02, -2.114829719e-01,  1.095705293e-02,
    -2.750940025e-01, -2.144431509e-02, -1.452376395e-01, -1.981690526e-01, -1.744064093e-01,  1.959052235e-01,  1.966551393e-01,  1.895985752e-01,
     3.602597862e-02, -1.471371204e-01, -8.509795368e-02, -4.408450425e-02,  9.026669711e-02, -1.638117991e-02, -4.291143641e-02,  2.074071392e-02,
    -2.361231893e-01, -1.420891657e-02, -1.095575839e-01, -5.700943619e-02,  2.507161796e-01, -9.316156805e-02,  9.123893082e-02,  6.763443351e-02,
     3.460156545e-02, -2.096364349e-01, -2.307720184e-01,  9.440052509e-02,  3.731431812e-02,  2.708883286e-01, -1.394683868e-01,  8.965151012e-02,
    -9.622798115e-02, -1.055831760e-01, -1.124962941e-01,  2.794982493e-02,  3.336850926e-02,  4.883193597e-02,  2.426783554e-02, -1.189134642e-01,
     2.528319061e-01, -2.049641907e-01,  1.170449108e-01, -1.144189239e-01, -8.539185673e-02,  2.561557479e-02, -4.545491561e-02,  9.610749036e-02,
    -4.498109594e-02, -3.209716082e-01,  5.248002335e-02,  1.408817917e-01,  1.060329229e-01, -1.006778404e-01, -7.536665350e-02, -4.895245656e-02,
     1.409036219e-01, -1.262593120e-01, -2.345914580e-02,  1.348192692e-01, -3.900285810e-02,  8.575765789e-02,  5.001217127e-02, -2.692593075e-02,
    -3.348219767e-02,  7.400482893e-02, -2.671417892e-01, -6.022747606e-02,  4.160478711e-02,  2.067272961e-01,  1.508473456e-01,  1.882753223e-01,
    -2.431994826e-01, -6.209370866e-02, -3.338428438e-01, -1.966155618e-01,  3.236911446e-02, -2.475345880e-02, -1.533530056e-01,  1.319389939e-01,
     2.045600414e-01,  6.344302893e-01,  5.075939372e-02,  1.537514627e-01,  6.108415127e-02,  2.491981238e-01,  1.743781120e-01,  2.265107483e-01,
    -2.407192141e-01,  1.417257041e-01,  1.377446949e-01, -8.251508325e-02, -2.596522868e-01,  6.265451014e-02, -1.698145270e-01,  3.715736568e-01,
     6.169555709e-03, -2.495959029e-02,  1.609776616e-01,  1.405881792e-01,  2.068435773e-02,  4.947333783e-02, -1.775942147e-01, -1.366641521e-01,
     3.729328811e-01, -2.281004637e-01,  1.663790196e-01,  1.743555516e-01,  2.468052953e-01,  3.084163666e-01,  2.281136513e-01, -2.181521952e-01,
    -2.384735942e-01, -5.617362857e-01,  5.670053512e-02,  1.257150024e-01, -2.434214205e-01, -4.492338896e-01, -1.876124442e-01, -3.025032580e-01,
     3.546533883e-01,  1.451676041e-01,  2.843550406e-02,  3.309129775e-01,  3.796811104e-01, -4.673648253e-02,  1.905302107e-01, -1.074595302e-01,
    -3.910318390e-02,  6.670244783e-02,  3.827060387e-02,  3.333929181e-02, -1.311728954e-01,  1.775158942e-01,  1.277840734e-01,  1.113191363e-03,
    -9.667890519e-02, -1.950086951e-01, -1.462231278e-01,  2.349939011e-02,  7.714707404e-02, -7.531805336e-02, -5.337505043e-02,  2.380144596e-01,
     2.949044108e-02, -9.195461124e-02, -7.363148779e-02,  2.637046874e-01,  1.630667895e-01, -1.434346884e-01,  2.803831697e-01,  1.283999979e-01,
    -1.521494519e-02,  5.856194068e-03, -2.009481937e-01, -6.354353577e-02,  1.850680858e-01,  1.337739974e-01, -2.001222670e-01, -3.992145881e-02,
     3.574990109e-02,  9.416329861e-02,  5.046173185e-02,  2.244042307e-01,  5.302037299e-02, -1.898268610e-01, -7.321311533e-02,  6.678321958e-02,
    -1.352966875e-01, -6.140082330e-02, -1.157011986e-01, -4.907099530e-02, -4.853154346e-02,  9.973213077e-02, -2.030418813e-01, -1.615286246e-02,
     2.567133307e-01,  1.785385460e-01, -1.564379185e-01, -1.571596414e-01, -2.407472953e-02, -8.738867193e-02, -8.859169669e-03, -1.255785823e-01,
    -2.877037227e-01, -8.412605524e-02,  8.482151479e-02,  1.283342838e-01, -2.366148233e-01,  3.888747096e-02, -2.377985418e-02,  6.451568007e-02,
    -3.710082471e-01,  5.748716593e-01, -9.403505325e-01, -5.352685452e-01, -7.389473915e-01,  3.792402446e-01,  5.627760291e-01,  1.432634830e+00,
    -2.041453123e+00,  6.026369333e-01, -2.124093056e+00, -3.747820556e-01, -1.443398476e+00, -1.125792623e+00, -8.485526443e-01,  5.173270106e-01,
     1.016376615e+00,  1.759517193e+00, -1.305253744e+00, -1.211599559e-01,  9.021692276e-01,  1.512048841e+00,  3.286571503e-01,  1.595946789e+00,
    -1.447585583e+00,  3.815618530e-02,  8.227140903e-01, -1.554208517e+00, -1.551881671e+00,  3.196181655e-01, -1.289141774e+00,  1.565976143e+00,
    -5.571898445e-02,  3.314104304e-02, -1.388723403e-01,  1.361511201e-01,  1.676824130e-02,  6.933689117e-02,  3.122157231e-02,  1.104505956e-01,
    -1.511773765e-01,  4.255294055e-02, -1.153336987e-01,  9.246589988e-02,  8.856141567e-02, -1.170986965e-01,  8.921132982e-02, -8.409400284e-02,
    -4.211568087e-02,  1.490327418e-01,  1.049265042e-01,  7.724740356e-02, -2.071492374e-01,  2.332651764e-01,  3.508368041e-03,  1.629248559e-01,
     4.209612682e-02, -1.565056294e-02,  1.693976969e-01,  4.957670346e-02, -1.419917345e-01, -4.323258623e-02, -2.278643101e-02,  1.650230139e-01,
    -1.458351463e-01, -8.348878622e-01,  5.546509624e-01,  2.309108675e-01,  3.402667344e-01,  1.649135351e-01,  7.663515210e-02, -7.443435788e-01,
     3.045072079e+00, -6.334784627e-01,  2.125763178e+00, -2.423046529e-01,  6.287190318e-01,  3.312251866e-01,  8.654798865e-01, -1.125490814e-01,
    -8.814557791e-01, -1.651385903e+00,  1.078129172e+00,  4.657186568e-01, -5.067375302e-01, -1.339155078e+00,  3.871995956e-02, -9.710620642e-01,
     1.530009270e+00, -4.639521837e-01, -8.078309894e-01,  8.950605392e-01,  9.875041246e-01,  2.367441803e-01,  6.278757453e-01, -1.100189328e+00,
    -7.944655418e-02,  5.257106945e-02, -1.931443065e-01, -7.889101654e-02, -1.469423324e-01,  2.720123827e-01, -5.742779374e-02, -9.655819088e-02,
     6.136694178e-02, -1.964163631e-01, -3.913780302e-02, -1.145790890e-01, -1.070092767e-01, -1.198310554e-01,  1.418148577e-01,  1.173950210e-01,
    -2.312250584e-01, -4.056254402e-02, -9.191318601e-02,  1.897399276e-01, -8.464124985e-03,  2.406608313e-01,  7.286351919e-02,  1.016446110e-02,
     1.457550228e-01, -3.568898188e-03,  7.061415911e-02,  3.496536985e-02, -7.366926968e-02,  5.704522133e-03, -1.031430960e-01,  2.156600803e-01,
     1.060432717e-01, -5.506746769e-01,  6.744444370e-01,  4.784964621e-01,  4.081166983e-01, -2.732394636e-01, -4.495271742e-01, -7.367212176e-01,
     1.618782759e+00, -3.713275492e-01,  1.306712627e+00,  2.032168806e-01,  8.610897064e-01,  7.435004115e-01,  4.157617688e-01, -4.549217224e-01,
    -6.906217933e-01, -1.133133769e+00,  8.289805651e-01,  1.032359228e-01, -6.912125349e-01, -9.884888530e-01,  7.803813368e-02, -6.645811796e-01,
     8.293786645e-01, -1.153332368e-01, -5.265716314e-01,  1.028931856e+00,  7.671027184e-01, -1.445257813e-01,  7.165925503e-01, -1.096013784e+00,
    -2.963597476e-01, -1.740970165e-01, -1.699731797e-01, -3.329008222e-01, -3.193406761e-02,  1.341753155e-01,  2.569114566e-01,  2.970893681e-01,
     1.060651168e-01, -1.444873959e-01,  1.232348531e-01, -1.869892180e-01, -2.165135592e-01, -4.642734712e-05,  1.395660043e-01,  3.813785687e-02,
    -1.713099629e-01, -1.419187188e-01,  1.522979736e-01,  1.730861813e-01,  6.996924430e-02,  3.685643151e-02,  3.260610998e-01,  5.944586918e-02,
     1.337963492e-01, -1.733528078e-01, -6.443518400e-02, -1.650372148e-01, -5.465496704e-02,  4.554263502e-02, -3.113048375e-01,  1.782161593e-01,
    -3.825520352e-02,  1.371063888e-01,  7.168297470e-02,  5.564746261e-02, -8.462604135e-02,  1.056151763e-01, -1.737813503e-01,  1.463398784e-01,
    -3.213340044e-01,  4.354843870e-02,  2.706894092e-02, -6.647242233e-03,  1.579554975e-01, -1.053824276e-01, -2.092916518e-01, -1.447842717e-01,
     1.223828718e-01,  3.537743390e-01, -1.192226484e-01, -1.403090637e-02, -8.955318481e-02,  3.412934765e-02,  4.969062656e-02, -1.035534590e-01,
    -8.092464507e-02,  2.388851345e-01,  8.115222305e-02,  1.284452230e-01, -1.208334938e-01,  4.843428731e-02, -1.398186237e-01,  8.157759905e-03,
    -8.970245719e-02, -4.588788375e-02,  6.016254425e-02,  9.912410378e-02, -5.250389501e-02,  4.869779572e-02,  1.866215169e-01, -5.470614135e-02,
     3.074238300e-01, -1.977359354e-01,  4.338658974e-02, -6.745562702e-02,  7.453703880e-02,  1.119968072e-01,  2.475368045e-02, -8.932492882e-02,
    -4.087501438e-04, -1.472104341e-01,  1.076073125e-01, -3.894799575e-02,  1.516240239e-01,  8.575358242e-02,  8.796191216e-02, -2.034346610e-01,
     2.140852362e-01, -1.968388259e-01, -5.762395635e-02,  3.993999586e-02, -1.424751896e-02,  1.488568932e-01, -1.837832779e-01, -1.453964505e-04,
     1.612062454e-01, -9.281012416e-01,  1.237252355e+00,  7.847329378e-01,  9.149914384e-01, -5.974817276e-02, -6.988452673e-01, -1.552245021e+00,
     2.206900597e+00, -8.261542916e-01,  2.399219275e+00,  1.879135966e-01,  1.488597393e+00,  1.183865666e+00,  1.151448488e+00, -4.734671414e-01,
    -9.597580433e-01, -1.969148040e+00,  1.426450968e+00,  4.608718678e-02, -1.216120720e+00, -1.739827394e+00,  2.491170168e-02, -1.689831257e+00,
     1.873836517e+00, -2.953386903e-01, -9.164490104e-01,  1.743040442e+00,  1.486264825e+00, -1.317274421e-01,  1.256695509e+00, -1.554614544e+00,
     7.072322816e-02, -4.555538762e-03,  9.319427609e-02, -5.638363957e-02, -8.259120584e-02, -7.881999761e-02,  3.902299330e-02, -7.751765847e-02,
    -2.827898599e-02,  2.543619573e-01,  7.899397612e-02, -8.710747934e-04,  1.592525095e-02, -1.179126557e-02, -2.083039433e-01, -9.478148818e-02,
     2.333526015e-01,  3.010759354e-01, -1.028859057e-02, -6.077199057e-02, -1.552428603e-01,  1.722071618e-01, -1.815314889e-01, -1.001225561e-01,
    -6.040656194e-02,  2.007042915e-01, -4.362499714e-02,  1.787119061e-01,  6.735886913e-03, -2.464081198e-01,  2.350256965e-02,  1.563325375e-01,
    -2.467481345e-01, -1.744976193e-01, -8.023892529e-03, -2.439380586e-01,  2.150147222e-02,  1.978122741e-01,  2.172143161e-01, -5.522381142e-02,
     2.430389076e-01, -2.074737847e-01,  1.797351390e-01, -2.770531774e-01, -2.162960321e-01,  3.672010824e-02,  7.972697914e-02,  1.233539134e-01,
    -1.855651885e-01, -1.397268474e-01, -5.165040866e-02, -5.869586766e-02,  1.107966676e-01,  5.230251700e-02,  1.225788891e-01,  6.579247117e-02,
     2.300822437e-01, -5.596740544e-02, -1.726457924e-01, -1.212985888e-01, -9.175372124e-02,  1.140414923e-02, -1.119950935e-01,  7.195367943e-03,
    -3.084894456e-02, -1.817162037e-01,  7.330792397e-02, -2.124744058e-01, -7.981719077e-02,  2.624690235e-01,  2.887991369e-01, -4.063760862e-02,
    -8.022363909e-05, -7.231966406e-02, -1.314688027e-01, -1.667610705e-01, -1.385703962e-02, -1.959001422e-01,  7.031998783e-02,  1.908374876e-01,
    -1.394904256e-01,  1.018410847e-01, -3.011550754e-02,  1.890819967e-01,  2.820327878e-01, -2.280470543e-02,  2.174027711e-01, -2.319829911e-02,
    -1.149143325e-03, -1.282870173e-01, -9.160839766e-02, -1.204691157e-01,  4.136967286e-02,  1.412777901e-01,  2.303035744e-02,  1.027249731e-02,
     1.009906307e-01,  5.122235417e-02, -1.116253808e-01,  1.335784048e-01,  7.209592313e-02, -1.504154503e-01, -1.464685351e-01,  2.351001464e-02,
    -1.668374985e-01,  2.104949504e-01, -4.144896939e-02,  1.483175457e-01,  1.077367887e-01, -5.721129011e-03,  1.222898159e-02,  4.733717442e-02,
     1.038096622e-01,  1.842635423e-01, -2.500860393e-02,  3.071349114e-02, -1.417358369e-01, -5.384926125e-02, -1.950968802e-02, -1.241767779e-01,
    -8.685091138e-02,  3.810929833e-03,  2.266378701e-01, -1.498049200e-01,  4.670200124e-02,  6.511746347e-02,  8.856619895e-02, -5.422662012e-03,
     1.561425030e-01, -1.333914995e-01,  1.914705895e-02, -7.203538716e-02, -1.802078076e-02,  5.340708792e-02,  5.622655153e-02, -8.058994263e-02,
    -1.117821559e-01, -2.928688377e-02, -1.677865657e-04,  8.427150548e-03,  1.717242599e-01,  2.050425112e-01, -9.900849313e-02,  6.290519610e-03,
    -1.161326393e-01, -3.825780451e-01, -1.256162524e-01,  1.943700761e-01,  1.020548642e-01, -2.139260806e-02,  1.298894137e-01, -1.462070644e-01,
     5.811490864e-02,  1.380632520e-01, -1.488708705e-01,  2.105617970e-01,  7.967534661e-02,  1.723498255e-01, -6.476891786e-02,  3.921436612e-03,
    -2.252230793e-01, -9.578065015e-03, -2.951304428e-02, -2.221887186e-02,  6.404791027e-02,  2.439990640e-01,  2.408313304e-01,  2.273056954e-01,
    -2.140217423e-01, -4.761390761e-02, -3.033625185e-01, -1.332170963e-01, -1.106083915e-01, -1.952731013e-01,  7.445441931e-02,  1.384751797e-01,
     4.463232681e-02,  4.301683903e-01,  8.171121031e-02,  1.153149158e-01, -5.242452398e-02,  7.879910618e-02,  1.390446872e-01,  1.156259924e-01,
     9.594521485e-03, -2.295171916e-01, -1.523250192e-01, -2.592222765e-03,  1.473669987e-02, -1.062571183e-01, -2.221943624e-02,  8.981956169e-03,
     5.245272815e-02, -4.669915140e-02,  1.343470216e-01, -2.362420112e-01, -2.228527665e-01,  1.969521940e-01,  2.446413636e-01,  1.385044307e-01,
     1.759508103e-01, -2.341527194e-01,  1.407927424e-01, -2.461976558e-01,  3.782087471e-03, -1.581887603e-01, -2.216819301e-02,  1.145437285e-01,
    -1.487681717e-01, -1.368694752e-01, -1.549190879e-01, -8.005119860e-02,  1.395796686e-01, -9.208267927e-02, -1.405314170e-02, -7.891961932e-02,
    -8.509983122e-02, -2.214657515e-01,  1.155563910e-02,  6.646798551e-02,  6.043189764e-02,  9.998687543e-03,  1.656976179e-03,  1.578261331e-02,
    -6.416725367e-02,  1.430201828e-01,  1.780337095e-01, -1.308753937e-01, -1.457746923e-01, -3.648709133e-02,  7.196988165e-02, -1.088409945e-01,
    -1.490915418e-01,  2.056149691e-01, -2.781164646e-02,  9.941969812e-02,  1.878708005e-01,  1.313979477e-01, -1.618267447e-01, -4.441495240e-02,
     1.800310463e-01,  3.486886919e-01, -2.202546149e-01,  2.235449478e-02, -9.251047671e-02, -1.020141393e-01, -3.552852944e-02, -4.978299141e-02,
    -7.382871211e-02, -4.773458466e-02, -3.312120587e-02, -2.138053067e-02, -1.335202157e-01,  1.674362086e-02,  4.620636627e-02,  1.693570763e-01,
     5.922453851e-02, -8.431591094e-02,  1.944746673e-01,  5.396228656e-02,  7.232505828e-02, -8.621178567e-02, -1.744581573e-02, -1.276098490e-01,
     2.969656885e-02, -1.466163546e-01,  4.633925483e-02, -1.213413998e-01,  4.012569413e-02,  1.846125573e-01, -1.264452040e-01, -1.502624005e-01,
    -7.311010361e-02, -3.513246477e-01,  7.131120563e-02,  2.021156810e-02,  3.542986512e-02, -3.130380511e-01, -2.449955977e-02,  4.104354233e-02,
     1.900329888e-01, -4.566298594e-05, -1.277410537e-01,  1.506000906e-01,  1.735417694e-01, -1.058154106e-01, -5.195350572e-02, -5.744544789e-02,
    -7.672717422e-02, -1.039021537e-01, -2.484062463e-01, -1.707335934e-02, -1.601068377e-01,  1.854828596e-01,  2.182759345e-01,  2.153801918e-01,
    -4.759509861e-01, -3.175112605e-02, -2.890328467e-01, -2.895842306e-02, -3.004022539e-01, -2.022684664e-01, -2.081290185e-01,  1.933093071e-01,
    -2.324960195e-02,  6.841281652e-01, -1.958404779e-01, -7.564632595e-02,  2.168554515e-01,  3.878511190e-01,  1.671661437e-01,  2.543986142e-01,
    -3.518032134e-01,  8.377589285e-02,  3.507378325e-02, -2.828684449e-01, -8.722492307e-02,  1.592018455e-01, -2.852700353e-01,  2.541222274e-01,
     1.831977516e-01,  5.531452969e-02,  2.367099077e-01, -4.193109926e-03, -4.592485726e-02,  1.115938127e-01,  4.374437779e-02,  6.394618750e-02,
    -1.344279665e-02, -1.090690643e-01,  1.801914908e-02, -1.297524869e-01,  1.617277861e-01,  2.236843407e-01,  2.709130384e-02, -6.060395762e-02,
     7.168894261e-02, -4.166359603e-01,  2.008536309e-01, -1.976612359e-01, -2.340212315e-01, -2.380284518e-01,  1.198040545e-01, -2.547196671e-02,
     9.555232525e-02, -1.050790921e-01,  5.493998900e-02,  9.300146252e-02,  1.289452612e-01,  1.159472540e-01,  1.411726624e-01, -1.602779031e-01,
};

constexpr double b2[32] = {
    -5.270023271e-02, -3.605299070e-02, -1.082556695e-01,  2.735563368e-02, -1.336796768e-02,  2.301202863e-01,  2.450879849e-02,  1.504043862e-02,
     3.562211245e-02, -1.773459315e-01,  9.189828485e-02, -1.024426892e-01,  9.889160842e-02, -1.083034128e-01,  3.600771129e-01,  2.272271365e-01,
    -1.572842896e-01,  2.884039581e-01, -2.062342316e-01, -9.029517323e-02,  8.038628846e-02, -8.942195773e-02,  2.449287474e-02, -6.734677404e-02,
    -1.512987763e-01,  7.828546315e-02, -1.035153046e-01, -9.258648753e-02, -4.176118970e-02, -1.471308768e-01, -1.122118309e-01, -9.972163290e-02,
};

constexpr double W3[32] = {
    -5.671597719e-01, -2.008704841e-01, -3.340722620e-01, -9.665878117e-02, -2.441369593e-01, -1.591259688e-01, -3.697902262e-01, -1.561564505e-01,
     1.440137252e-02, -1.395728141e-01, -2.697452307e-01,  1.662202030e-01,  1.354829073e+00,  1.170404702e-01, -3.335653841e-01, -2.821344435e-01,
    -3.237539530e-01, -2.567144036e-01,  1.692457497e-01, -1.576831043e-01, -8.009544611e-01,  1.375351697e-01, -3.708151877e-01, -3.320280313e-01,
     1.318714768e-01, -1.679914147e-01, -1.195152849e-01, -2.252026200e-01,  7.233512402e-02, -9.665425122e-02,  1.302746534e-01, -5.911363661e-02,
};

constexpr double b3[1] = {
    -2.263296694e-01,
};

}  // namespace vd::pinn_weights
